svm_type c_svc
kernel_type linear
nr_class 2
total_sv 377
rho -0.0771729779068455
label 1 2
probA -2.7781825931633946
probB 0.2649829141510435
nr_sv 182 195
SV
9.293573938365173E-4 1:4.6126422 2:5.3057894 3:2.6667321 4:9.8006485 5:5.3057894 6:5.3057894 7:5.3057894 8:5.3057894 9:2.2147469 10:5.3057894 11:4.6126422 12:5.3057894 13:4.6126422 14:5.3057894 15:5.3057894 16:5.3057894 17:5.3057894 18:5.3057894 19:5.3057894 20:5.3057894 21:5.3057894 22:0.5 23:1.0 24:0.0907916 
0.008884966309744651 22:0.5 23:0.3157895 24:0.0603818 25:5.3057894 26:4.6126422 27:4.9003243 28:4.6126422 29:4.6126422 30:4.6126422 31:4.3894986 32:5.3057894 33:5.3057894 
0.003537887403551976 22:0.5 23:0.1578947 24:0.0803021 34:4.6126422 35:5.3057894 36:2.7800607 37:4.9003243 38:4.9003243 39:4.2071771 
9.711962029945987E-4 3:2.6667321 22:0.5 23:0.4210526 24:0.1191992 40:4.6126422 41:1.178655 42:5.3057894 43:4.9003243 44:4.9003243 45:5.3057894 46:2.74084 47:4.9003243 48:4.9003243 49:4.9003243 
0.004142826277162102 22:0.5 23:0.2631579 24:0.0609098 50:5.3057894 51:5.3057894 52:5.3057894 53:5.3057894 54:1.7362567 55:5.3057894 56:4.6126422 57:5.3057894 
0.003365030119036951 22:0.5 23:0.4210526 24:0.0869972 41:1.178655 54:1.7362567 58:4.9003243 59:5.3057894 60:5.3057894 61:5.3057894 62:5.3057894 63:4.6126422 64:4.9003243 65:5.3057894 66:5.3057894 
0.00603808041533436 9:2.2147469 22:0.5 23:0.2105263 24:0.0796437 67:4.9003243 68:4.6126422 69:5.3057894 70:5.3057894 71:3.919495 72:5.3057894 
0.010834737229654558 9:2.2147469 22:0.5 23:0.2631579 24:0.1419129 41:1.178655 73:3.6963515 74:3.919495 75:4.2071771 76:4.3894986 77:5.3057894 78:5.3057894 
0.007471511861228766 3:2.6667321 22:0.5 23:0.2105263 24:0.0839088 79:3.6010413 80:4.9003243 81:5.3057894 82:5.3057894 83:5.3057894 84:4.3894986 
0.006882233164338138 22:0.5 23:0.2105263 24:0.1249132 41:1.178655 85:3.919495 86:4.3894986 87:4.9003243 88:4.3894986 89:4.2071771 90:3.6963515 
0.006283127195853521 22:0.5 23:0.3157895 24:0.1674094 36:2.7800607 46:2.74084 91:2.1071163 92:4.6126422 93:5.3057894 94:5.3057894 95:4.2071771 96:4.9003243 97:2.2612669 
0.00638161303234 22:0.5 23:0.1578947 24:0.0835476 41:1.178655 98:5.3057894 99:5.3057894 100:5.3057894 101:5.3057894 102:2.5332007 
0.007348823103866671 22:0.5 23:0.2631579 24:0.0992717 54:1.7362567 103:4.3894986 104:5.3057894 105:4.9003243 106:5.3057894 107:3.6963515 108:5.3057894 109:4.0530264 
0.005767775576174162 22:0.5 23:0.2631579 24:0.1353986 41:1.178655 97:2.2612669 107:3.6963515 110:4.0530264 111:4.9003243 112:4.2071771 113:5.3057894 114:4.9003243 
0.006879602406485 22:0.5 23:0.2631579 24:0.1056027 39:4.2071771 54:1.7362567 115:4.9003243 116:5.3057894 117:5.3057894 118:3.1657232 119:4.9003243 120:4.3894986 
0.001894472864047356 22:0.5 23:0.3157895 24:0.1031737 41:1.178655 121:4.3894986 122:4.3894986 123:5.3057894 124:4.9003243 125:4.3894986 126:4.6126422 127:4.3894986 128:4.2071771 
0.007291924421589017 9:2.2147469 22:0.5 23:0.2631579 24:0.1412552 46:2.74084 118:3.1657232 129:4.9003243 130:3.4339872 131:4.6126422 132:5.3057894 133:5.3057894 
0.0058861995068523265 22:0.5 23:0.5789474 24:0.1289501 134:3.6963515 135:5.3057894 136:5.3057894 137:9.2252844 138:4.2071771 139:4.3894986 140:4.6126422 141:4.3894986 142:4.6126422 143:5.3057894 144:4.2071771 145:2.9078941 146:2.9078941 
0.0018320879242018353 3:2.6667321 9:2.2147469 22:0.5 23:0.2631579 24:0.1795738 41:1.178655 97:2.2612669 112:4.2071771 147:5.3057894 148:4.9003243 149:4.9003243 
0.005344372355758976 22:0.5 23:0.6315789 24:0.1385406 54:1.7362567 138:4.2071771 150:4.9003243 151:4.9003243 152:4.9003243 153:4.9003243 154:5.3057894 155:5.3057894 156:4.9003243 157:3.801712 158:4.0530264 159:4.6126422 160:4.9003243 161:3.2263478 162:3.2263478 
0.003135771149938609 22:0.5 23:0.4736842 24:0.1395374 36:2.7800607 41:1.178655 54:1.7362567 107:3.6963515 163:4.3894986 164:5.3057894 165:5.3057894 166:4.3894986 167:4.0530264 168:5.3057894 169:5.3057894 170:5.3057894 
0.004223365329377584 22:0.5 23:0.1578947 24:0.0696757 171:3.4339872 172:5.3057894 173:5.3057894 174:4.9003243 175:3.919495 176:4.6126422 
0.004375204633035311 22:0.5 23:0.3157895 24:0.0810702 41:1.178655 118:3.1657232 177:5.3057894 178:5.3057894 179:5.3057894 180:5.3057894 181:5.3057894 182:4.0530264 183:5.3057894 
0.008147215675615875 9:2.2147469 22:0.5 23:0.2105263 24:0.1527736 41:1.178655 54:1.7362567 63:4.6126422 86:4.3894986 184:4.9003243 185:5.3057894 
0.005111681887368644 22:0.5 23:0.1578947 24:0.0740181 89:4.2071771 90:3.6963515 186:4.9003243 187:4.9003243 188:4.3894986 189:4.9003243 
0.002408075362681008 22:0.5 23:0.2631579 24:0.0581307 36:2.7800607 190:5.3057894 191:5.3057894 192:4.9003243 193:4.9003243 194:5.3057894 195:5.3057894 196:5.3057894 
0.005557854993147094 22:0.5 23:0.2105263 24:0.0619949 138:4.2071771 139:4.3894986 197:4.9003243 198:3.801712 199:5.3057894 200:5.3057894 201:5.3057894 
0.0032312012490375848 22:0.5 23:0.4210526 24:0.1587345 36:2.7800607 41:1.178655 91:2.1071163 120:4.3894986 202:4.2071771 203:4.9003243 204:3.6010413 205:3.919495 206:4.9003243 207:5.3057894 208:5.3057894 
0.009074316384737543 22:0.5 23:0.2105263 24:0.0522866 209:4.9003243 210:5.3057894 211:5.3057894 212:5.3057894 213:4.2071771 214:4.2071771 215:4.9003243 
0.001037117444476271 3:2.6667321 9:2.2147469 22:0.5 23:0.3157895 24:0.2537426 41:1.178655 97:2.2612669 102:2.5332007 216:5.3057894 217:4.3894986 218:3.5140299 219:3.919495 
0.005528286542509074 22:0.5 23:0.2105263 24:0.0350952 48:4.9003243 220:4.6126422 221:5.3057894 222:5.3057894 223:5.3057894 224:5.3057894 225:5.3057894 
0.0022961080304418065 22:0.5 23:0.2631579 24:0.1039277 122:4.3894986 187:4.9003243 188:4.3894986 226:4.2071771 227:4.6126422 228:4.9003243 229:3.1657232 230:4.6126422 
0.008381744657746127 22:0.5 23:0.1578947 24:0.0562664 231:4.3894986 232:4.9003243 233:5.3057894 234:4.2071771 235:5.3057894 236:4.3894986 
0.0043137298930944 22:0.5 23:0.3684211 24:0.068417 46:2.74084 228:4.9003243 237:5.3057894 238:4.9003243 239:5.3057894 240:5.3057894 241:4.9003243 242:4.9003243 243:4.6126422 244:5.3057894 
0.005603429983435065 22:0.5 23:0.2631579 24:0.0803945 41:1.178655 198:3.801712 257:4.6126422 258:4.6126422 259:4.9003243 260:5.3057894 261:5.3057894 262:5.3057894 
0.0035775979999190834 22:0.5 23:0.1578947 24:0.082014 85:3.919495 90:3.6963515 130:3.4339872 263:5.3057894 264:5.3057894 265:4.9003243 
0.004996928511880393 22:0.5 23:0.5263158 24:0.100853 49:4.9003243 86:4.3894986 152:4.9003243 171:3.4339872 266:3.1657232 267:5.3057894 268:5.3057894 269:3.3598792 270:4.9003243 271:4.9003243 272:4.6126422 273:5.3057894 274:5.3057894 
5.877305024305766E-4 22:0.5 23:0.3684211 24:0.1175602 41:1.178655 85:3.919495 87:4.9003243 102:2.5332007 275:5.3057894 276:4.3894986 277:4.3894986 278:4.6126422 279:5.3057894 280:4.9003243 
0.0036173146124233056 22:0.5 23:0.1578947 24:0.038818 248:4.3894986 281:4.6126422 282:5.3057894 283:5.3057894 284:5.3057894 285:5.3057894 
7.880680423658324E-4 22:0.5 23:0.5263158 24:0.0837091 46:2.74084 286:4.9003243 287:4.9003243 288:4.9003243 289:4.6126422 290:5.3057894 291:4.3894986 292:4.3894986 293:4.6126422 294:10.6115788 295:4.9003243 296:5.3057894 
0.005181263046263816 22:0.5 23:0.2105263 24:0.0535748 127:4.3894986 204:3.6010413 297:5.3057894 298:5.3057894 299:4.9003243 300:5.3057894 301:5.3057894 
0.006365219727678826 22:0.5 23:0.5263158 24:0.1153427 41:1.178655 54:1.7362567 204:3.6010413 302:5.3057894 303:5.3057894 304:4.9003243 305:4.9003243 306:5.3057894 307:4.9003243 308:4.9003243 309:3.919495 310:4.9003243 311:5.3057894 
0.004774516033677834 22:0.5 23:0.3684211 24:0.1272192 36:2.7800607 88:4.3894986 110:4.0530264 153:4.9003243 205:3.919495 312:2.7800607 313:5.3057894 314:4.6126422 315:4.6126422 316:4.9003243 
0.006505562141298844 9:2.2147469 22:0.5 23:0.2105263 24:0.10064 41:1.178655 317:4.3894986 318:4.6126422 319:5.3057894 320:5.3057894 321:5.3057894 
0.012648721728775946 22:0.5 23:0.2105263 24:0.0915841 54:1.7362567 109:4.0530264 322:4.9003243 323:5.3057894 324:4.2071771 325:4.6126422 326:5.3057894 
0.0020192474076825367 22:0.5 23:0.2105263 24:0.0657909 226:4.2071771 281:4.6126422 327:4.9003243 328:3.4339872 329:5.3057894 330:5.3057894 331:5.3057894 
0.014785988023654833 22:0.5 23:0.2105263 24:0.1703543 46:2.74084 112:4.2071771 145:2.9078941 146:2.9078941 236:4.3894986 266:3.1657232 332:5.3057894 
0.003556659957069148 22:0.5 23:0.3684211 24:0.1122872 118:3.1657232 171:3.4339872 198:3.801712 226:4.2071771 227:4.6126422 333:4.2071771 334:4.6126422 335:5.3057894 336:5.3057894 337:4.9003243 
0.005590621618476229 22:0.5 23:0.4210526 24:0.1094584 118:3.1657232 161:3.2263478 162:3.2263478 338:5.3057894 339:4.9003243 340:4.9003243 341:4.9003243 342:4.0530264 343:4.9003243 344:5.3057894 345:5.3057894 
0.005422530565254625 22:0.5 23:0.2105263 24:0.0319803 353:4.6126422 354:5.3057894 355:5.3057894 356:5.3057894 357:5.3057894 358:5.3057894 359:5.3057894 
0.006729458362194838 22:0.5 23:0.2631579 24:0.0944429 54:1.7362567 91:2.1071163 360:5.3057894 361:5.3057894 362:4.3894986 363:5.3057894 364:5.3057894 365:5.3057894 
0.0019679907557449017 22:0.5 23:0.2105263 24:0.0525288 96:4.9003243 342:4.0530264 366:4.6126422 367:5.3057894 368:5.3057894 369:5.3057894 370:4.6126422 
0.004723024577803096 22:0.5 23:0.3684211 24:0.0777408 41:1.178655 73:3.6963515 371:5.3057894 372:5.3057894 373:5.3057894 374:5.3057894 375:4.9003243 376:4.9003243 377:4.9003243 378:4.9003243 
0.005672112016574124 22:0.5 23:0.2105263 24:0.0905757 41:1.178655 317:4.3894986 379:4.9003243 380:4.3894986 381:4.9003243 382:4.3894986 383:4.9003243 
0.007659267531042824 22:0.5 23:0.1578947 24:0.0304563 230:4.6126422 384:5.3057894 385:5.3057894 386:5.3057894 387:5.3057894 388:5.3057894 
0.009780609461735632 22:0.5 23:0.3684211 24:0.1219627 40:4.6126422 226:4.2071771 227:4.6126422 312:2.7800607 328:3.4339872 389:4.9003243 390:4.9003243 391:4.9003243 392:3.5140299 393:4.9003243 
0.002889952999223893 3:2.6667321 22:0.5 23:0.3157895 24:0.0834196 41:1.178655 394:5.3057894 395:5.3057894 396:5.3057894 397:5.3057894 398:5.3057894 399:5.3057894 400:4.3894986 
0.005650321422162094 22:0.5 23:0.2631579 24:0.1541493 36:2.7800607 54:1.7362567 91:2.1071163 115:4.9003243 351:3.5140299 401:5.3057894 402:5.3057894 403:4.6126422 
0.005725635781397836 22:0.5 23:0.2631579 24:0.0992804 41:1.178655 91:2.1071163 375:4.9003243 404:4.2071771 405:4.9003243 406:5.3057894 407:5.3057894 408:5.3057894 
0.004405998877296886 22:0.5 23:0.4210526 24:0.1537397 41:1.178655 46:2.74084 102:2.5332007 229:3.1657232 413:4.6126422 414:5.3057894 415:4.9003243 416:4.9003243 417:5.3057894 418:5.3057894 419:3.919495 
0.005135381133808835 22:0.5 23:0.2631579 24:0.0725779 299:4.9003243 342:4.0530264 366:4.6126422 420:5.3057894 421:3.919495 422:4.9003243 423:4.6126422 424:4.9003243 
0.006907317675310959 22:0.5 23:0.1052632 24:0.0391763 109:4.0530264 425:4.9003243 426:5.3057894 427:5.3057894 428:5.3057894 
0.010551634432547656 22:0.5 23:0.1578947 24:0.1273932 41:1.178655 91:2.1071163 130:3.4339872 265:4.9003243 429:5.3057894 430:4.9003243 
0.006458269829495114 22:0.5 23:0.2631579 24:0.0782006 91:2.1071163 328:3.4339872 431:4.9003243 432:5.3057894 433:5.3057894 434:5.3057894 435:5.3057894 436:5.3057894 
0.0093328124638992 22:0.5 23:0.2631579 24:0.0945572 41:1.178655 189:4.9003243 437:3.1085648 438:4.2071771 439:4.9003243 440:4.9003243 441:5.3057894 442:5.3057894 
0.005243647236787542 9:2.2147469 22:0.5 23:0.3157895 24:0.1928548 36:2.7800607 41:1.178655 54:1.7362567 205:3.919495 392:3.5140299 443:4.9003243 444:5.3057894 445:5.3057894 
0.0053152208763800005 22:0.5 23:0.3684211 24:0.1497552 54:1.7362567 91:2.1071163 351:3.5140299 382:4.3894986 392:3.5140299 446:4.2071771 447:5.3057894 448:5.3057894 449:4.6126422 450:4.9003243 
0.0032312012397665677 22:0.5 23:0.4210526 24:0.1587345 36:2.7800607 41:1.178655 91:2.1071163 120:4.3894986 202:4.2071771 203:4.9003243 204:3.6010413 205:3.919495 206:4.9003243 451:5.3057894 452:5.3057894 
0.00925346025688117 22:0.5 23:0.1052632 24:0.0652468 91:2.1071163 453:4.6126422 454:5.3057894 455:5.3057894 456:5.3057894 
0.0016600689656405755 22:0.5 23:0.3684211 24:0.0903909 54:1.7362567 174:4.9003243 226:4.2071771 307:4.9003243 309:3.919495 327:4.9003243 457:4.9003243 458:5.3057894 459:5.3057894 460:5.3057894 
0.0037153039284763376 3:2.6667321 22:0.5 23:0.2631579 24:0.1096301 54:1.7362567 84:4.3894986 309:3.919495 461:5.3057894 462:5.3057894 463:5.3057894 464:5.3057894 
0.0067237825711760684 22:0.5 23:0.1578947 24:0.101048 41:1.178655 102:2.5332007 248:4.3894986 465:5.3057894 466:4.9003243 467:5.3057894 
0.005545622659170931 22:0.5 23:0.1578947 24:0.0587653 276:4.3894986 277:4.3894986 278:4.6126422 468:4.6126422 469:4.9003243 470:5.3057894 
0.006585361298276315 22:0.5 23:0.2105263 24:0.0650808 91:2.1071163 474:5.3057894 475:5.3057894 476:5.3057894 477:5.3057894 478:4.9003243 479:4.6126422 
0.0047327784227523435 22:0.5 23:0.4210526 24:0.0890375 84:4.3894986 91:2.1071163 171:3.4339872 404:4.2071771 480:5.3057894 481:5.3057894 482:5.3057894 483:5.3057894 484:5.3057894 485:4.9003243 486:5.3057894 
5.631496027837791E-4 9:2.2147469 22:0.5 23:0.3684211 24:0.1888263 41:1.178655 97:2.2612669 102:2.5332007 214:4.2071771 487:4.6126422 488:4.2071771 489:4.9003243 490:5.3057894 491:4.2071771 
0.003766182166839803 22:0.5 23:0.3684211 24:0.0624497 46:2.74084 492:5.3057894 493:4.9003243 494:5.3057894 495:5.3057894 496:5.3057894 497:4.9003243 498:5.3057894 499:5.3057894 500:4.6126422 
0.006078556081774667 22:0.5 23:0.4210526 24:0.1432696 41:1.178655 102:2.5332007 171:3.4339872 400:4.3894986 410:4.2071771 419:3.919495 501:5.3057894 502:4.9003243 503:5.3057894 504:4.3894986 505:4.3894986 
0.0031711045768706148 22:0.5 23:0.4210526 24:0.1452392 36:2.7800607 41:1.178655 54:1.7362567 258:4.6126422 269:3.3598792 317:4.3894986 506:5.3057894 507:5.3057894 508:4.2071771 509:5.3057894 510:5.3057894 
0.003930633927094829 22:0.5 23:0.1052632 24:0.0356662 366:4.6126422 511:5.3057894 512:5.3057894 513:5.3057894 514:4.6126422 
0.006486169363093575 22:0.5 23:0.2631579 24:0.0820258 328:6.8679744 423:4.6126422 515:4.9003243 516:5.3057894 517:5.3057894 518:4.9003243 519:4.3894986 
0.013324567420574517 11:4.6126422 22:0.5 23:0.2105263 24:0.0896464 41:1.178655 488:4.2071771 520:5.3057894 521:4.6126422 522:4.6126422 523:4.6126422 
0.0055869298583085675 22:0.5 23:0.1052632 24:0.109107 41:1.178655 317:4.3894986 379:4.9003243 421:3.919495 524:4.0530264 
0.005629202972512637 22:0.5 23:0.2105263 24:0.0382846 525:5.3057894 526:5.3057894 527:4.9003243 528:4.6126422 529:5.3057894 530:4.9003243 531:5.3057894 
0.001158753009169967 22:0.5 23:0.3684211 24:0.0632267 41:1.178655 291:4.3894986 539:5.3057894 540:5.3057894 541:5.3057894 542:5.3057894 543:4.9003243 544:5.3057894 545:5.3057894 546:4.9003243 
0.006244560384178173 22:0.5 23:0.1578947 24:0.0674401 229:3.1657232 346:4.2071771 547:5.3057894 548:5.3057894 549:5.3057894 550:5.3057894 
0.009565736524153531 22:0.5 23:0.1578947 24:0.1032041 54:1.7362567 107:3.6963515 551:5.3057894 552:4.2071771 553:4.6126422 554:4.9003243 
0.014977969977991997 22:0.5 23:0.1578947 24:0.1381837 79:3.6010413 145:2.9078941 146:2.9078941 252:4.0530264 555:4.2071771 556:5.3057894 
0.009753977778444407 22:0.5 23:0.2105263 24:0.1047114 91:2.1071163 97:2.2612669 555:4.2071771 557:5.3057894 558:5.3057894 559:4.9003243 560:5.3057894 
0.005287938903579102 9:2.2147469 22:0.5 23:0.2631579 24:0.0945404 218:3.5140299 392:3.5140299 405:4.9003243 561:5.3057894 562:5.3057894 563:5.3057894 564:5.3057894 
0.0027678482059461593 22:0.5 23:0.3684211 24:0.0533274 41:1.178655 259:4.9003243 565:5.3057894 566:5.3057894 567:5.3057894 568:5.3057894 569:5.3057894 570:5.3057894 571:5.3057894 572:5.3057894 
0.005638080835855478 22:0.5 23:0.2631579 24:0.1152522 41:1.178655 102:2.5332007 421:3.919495 471:4.9003243 524:4.0530264 578:5.3057894 579:5.3057894 580:4.9003243 
0.00611136502233027 3:2.6667321 22:0.5 23:0.2105263 24:0.1279676 41:1.178655 44:4.9003243 97:2.2612669 271:4.9003243 581:5.3057894 582:5.3057894 
0.005472176550452252 22:0.5 23:0.4210526 24:0.1283264 41:1.178655 54:1.7362567 158:4.0530264 217:4.3894986 532:4.9003243 533:4.3894986 534:4.9003243 535:4.9003243 536:4.9003243 537:4.9003243 538:4.6126422 
0.004452242713813143 22:0.5 23:0.2631579 24:0.063717 171:3.4339872 553:4.6126422 583:5.3057894 584:5.3057894 585:5.3057894 586:4.6126422 587:5.3057894 588:4.3894986 
1.0 9:2.2147469 22:0.5 23:0.5263158 24:0.1457796 145:2.9078941 146:2.9078941 589:4.3894986 590:3.801712 591:4.9003243 592:4.9003243 593:4.6126422 594:4.6126422 595:4.6126422 596:4.9003243 597:4.9003243 598:4.9003243 
0.008415459956357766 22:0.5 23:0.2105263 24:0.106926 41:1.178655 54:1.7362567 292:4.3894986 599:5.3057894 600:5.3057894 601:4.6126422 602:4.9003243 
0.014232437098030468 22:0.5 23:0.2105263 24:0.210987 41:1.178655 46:2.74084 102:2.5332007 145:2.9078941 146:2.9078941 603:4.6126422 604:5.3057894 
0.0045138967181101875 3:2.6667321 9:2.2147469 22:0.5 23:0.2105263 24:0.1907218 41:1.178655 97:2.2612669 219:3.919495 605:5.3057894 606:5.3057894 
0.006716874600574324 22:0.5 23:0.2105263 24:0.1562777 41:1.178655 54:1.7362567 102:2.5332007 245:4.6126422 246:4.9003243 247:4.9003243 248:4.3894986 
0.014236082895172709 22:0.5 23:0.1578947 24:0.0649099 312:2.7800607 607:4.6126422 608:5.3057894 609:4.6126422 610:5.3057894 611:5.3057894 
0.025966280761550473 22:0.5 24:0.0721051 350:4.6126422 351:3.5140299 352:4.3894986 
0.002758722253064963 22:0.5 23:0.2631579 24:0.1161133 41:1.178655 95:4.2071771 102:2.5332007 192:4.9003243 252:4.0530264 389:4.9003243 612:4.9003243 613:5.3057894 
0.0044491255218291415 22:0.5 23:0.2105263 24:0.1270729 41:1.178655 102:2.5332007 121:4.3894986 127:4.3894986 128:4.2071771 472:4.9003243 543:4.9003243 
0.007875676642256255 22:0.5 23:0.3684211 24:0.1249662 145:2.9078941 146:2.9078941 182:4.0530264 419:3.919495 508:4.2071771 1180:4.9003243 1186:4.9003243 1301:4.3894986 1537:5.3057894 1538:4.9003243 
0.005233368684973198 22:0.5 23:0.2631579 24:0.118228 41:1.178655 102:2.5332007 130:3.4339872 334:4.6126422 595:4.6126422 1330:4.9003243 1539:5.3057894 1540:5.3057894 
0.00354366307393558 22:0.5 23:0.2631579 24:0.1094933 46:2.74084 91:2.1071163 107:3.6963515 281:4.6126422 1467:4.9003243 1541:5.3057894 1542:5.3057894 1543:5.3057894 
0.0032373296696680495 9:2.2147469 22:0.5 23:0.2105263 24:0.0906752 41:1.178655 67:4.9003243 1544:4.9003243 1545:5.3057894 1546:5.3057894 1547:5.3057894 
0.005117700405205161 22:0.5 23:0.3684211 24:0.1103014 91:2.1071163 351:3.5140299 382:4.3894986 392:3.5140299 449:4.6126422 450:4.9003243 825:4.6126422 1548:5.3057894 1549:5.3057894 1550:5.3057894 
0.0028476902846675816 22:0.5 23:0.6842105 24:0.08927 46:2.74084 175:3.919495 380:4.3894986 753:3.6010413 1251:4.3894986 1322:4.6126422 1551:5.3057894 1552:5.3057894 1553:5.3057894 1554:10.6115788 1555:5.3057894 1556:5.3057894 1557:5.3057894 1558:5.3057894 1559:5.3057894 
0.009281885555017343 3:2.6667321 9:2.2147469 22:0.5 23:0.3684211 24:0.2740438 41:1.178655 54:1.7362567 97:2.2612669 102:2.5332007 218:3.5140299 664:4.6126422 783:4.3894986 1560:5.3057894 
0.004012056790447312 22:0.5 23:0.4210526 24:0.0857943 54:1.7362567 68:4.6126422 130:3.4339872 773:4.9003243 1561:5.3057894 1562:5.3057894 1563:5.3057894 1564:5.3057894 1565:5.3057894 1566:5.3057894 1567:4.3894986 
0.009653361112754338 22:0.5 23:0.1052632 24:0.0260423 1056:4.9003243 1568:5.3057894 1569:5.3057894 1570:5.3057894 1571:5.3057894 
0.0047107388326215124 3:5.3334641 9:2.2147469 22:0.5 23:0.1052632 24:0.2050586 41:1.178655 1544:4.9003243 
0.017068065533147516 22:0.5 23:0.1052632 24:0.0889045 97:2.2612669 103:4.3894986 291:4.3894986 1349:4.9003243 1572:5.3057894 
0.004595179256449114 9:2.2147469 22:0.5 23:0.4736842 24:0.1486968 36:2.7800607 71:3.919495 97:2.2612669 118:3.1657232 176:4.6126422 193:4.9003243 586:4.6126422 1573:5.3057894 1574:5.3057894 1575:5.3057894 1576:5.3057894 
0.007649807481394251 22:0.5 23:0.2631579 24:0.0848925 73:3.6963515 74:3.919495 110:4.0530264 148:4.9003243 149:4.9003243 1255:4.6126422 1577:5.3057894 1578:4.9003243 
0.0025673112938167236 22:0.5 23:0.2105263 24:0.0403685 270:4.9003243 1380:4.3894986 1579:5.3057894 1580:5.3057894 1581:4.9003243 1582:5.3057894 1583:5.3057894 
0.004861008687862519 22:0.5 23:0.2631579 24:0.0850479 41:1.178655 131:4.6126422 479:4.6126422 528:4.6126422 530:4.9003243 752:4.6126422 1061:4.6126422 1584:5.3057894 
0.00708767469471118 22:0.5 23:0.1578947 24:0.0669631 41:1.178655 590:3.801712 1585:5.3057894 1586:5.3057894 1587:5.3057894 1588:5.3057894 
0.00397510548609872 22:0.5 23:0.3157895 24:0.0872373 145:2.9078941 146:2.9078941 343:9.8006485 715:4.2071771 1589:5.3057894 1590:5.3057894 1591:5.3057894 1592:5.3057894 
0.003727903739951188 3:2.6667321 22:0.5 23:0.3684211 24:0.0989319 28:4.6126422 41:1.178655 257:4.6126422 723:4.2071771 1593:4.9003243 1594:5.3057894 1595:5.3057894 1596:5.3057894 1597:5.3057894 
0.007364026562959116 22:0.5 23:0.3684211 24:0.1092261 46:2.74084 118:3.1657232 130:3.4339872 753:3.6010413 1536:4.6126422 1598:5.3057894 1599:5.3057894 1600:5.3057894 1601:5.3057894 1602:5.3057894 
0.005537379141353932 22:0.5 23:0.1578947 24:0.0486648 109:4.0530264 342:4.0530264 1603:5.3057894 1604:5.3057894 1605:5.3057894 1606:5.3057894 
0.007197880428449188 22:0.5 23:0.4210526 24:0.1700968 36:2.7800607 46:2.74084 145:2.9078941 146:2.9078941 266:3.1657232 446:4.2071771 658:4.9003243 702:4.6126422 827:4.9003243 1607:5.3057894 1608:5.3057894 
0.0010935294369351788 22:0.5 23:0.3157895 24:0.1021455 41:1.178655 56:4.6126422 102:2.5332007 439:4.9003243 449:4.6126422 1088:4.6126422 1309:4.9003243 1609:5.3057894 1610:5.3057894 
0.005656202950756402 22:0.5 23:0.2631579 24:0.060419 514:4.6126422 621:4.3894986 1100:4.6126422 1251:4.3894986 1337:4.9003243 1611:5.3057894 1612:4.9003243 1613:5.3057894 
0.005680151888089538 22:0.5 23:0.2631579 24:0.0836793 91:2.1071163 312:2.7800607 602:4.9003243 1614:5.3057894 1615:5.3057894 1616:5.3057894 1617:5.3057894 1618:5.3057894 
0.006445514780244292 9:2.2147469 22:0.5 23:0.3157895 24:0.0975455 79:3.6010413 141:4.3894986 672:9.8006485 674:4.0530264 1619:9.8006485 1620:5.3057894 
0.00481244074747255 22:0.5 23:0.4210526 24:0.1635227 41:1.178655 54:3.4725134 73:7.3927029 167:4.0530264 188:4.3894986 1301:4.3894986 1578:4.9003243 1621:5.3057894 1622:5.3057894 
0.006595099681016 22:0.5 23:0.1052632 24:0.0224822 1626:5.3057894 1627:5.3057894 1628:5.3057894 1629:5.3057894 1630:5.3057894 
0.009404567326408795 22:0.5 23:0.1052632 24:0.0424059 256:3.801712 1018:4.9003243 1631:5.3057894 1632:5.3057894 1633:5.3057894 
0.0016361550929526452 22:0.5 23:0.4210526 24:0.0933875 118:3.1657232 150:4.9003243 176:4.6126422 340:4.9003243 410:4.2071771 468:4.6126422 555:4.2071771 736:4.2071771 1454:4.9003243 1634:5.3057894 1635:5.3057894 
0.0019704097034727915 22:0.5 23:0.2105263 24:0.0663722 26:4.6126422 41:1.178655 92:4.6126422 184:4.9003243 1636:5.3057894 1637:5.3057894 1638:5.3057894 
0.0043814386218859495 22:0.5 23:0.2105263 24:0.0608839 127:4.3894986 328:3.4339872 993:4.9003243 1497:4.9003243 1639:5.3057894 1640:5.3057894 1641:5.3057894 
0.0016522250718723165 22:0.5 23:0.5789474 24:0.118632 41:1.178655 46:2.74084 85:3.919495 107:3.6963515 166:4.3894986 468:4.6126422 546:4.9003243 708:4.9003243 736:4.2071771 1642:5.3057894 1643:5.3057894 1644:5.3057894 1645:5.3057894 1646:5.3057894 
0.002833366907007505 22:0.5 23:0.3684211 24:0.1277637 144:4.2071771 175:3.919495 249:4.2071771 250:4.3894986 251:4.2071771 252:4.0530264 253:4.3894986 254:4.3894986 255:4.3894986 256:3.801712 
0.008749225594214543 9:2.2147469 22:0.5 23:0.1052632 24:0.1116545 41:1.178655 410:4.2071771 1647:5.3057894 1648:5.3057894 
0.008662065668733353 9:2.2147469 22:0.5 23:0.1578947 24:0.1503274 41:1.178655 214:4.2071771 487:4.6126422 488:4.2071771 491:4.2071771 
0.013877060028539105 22:0.5 23:0.1578947 24:0.075088 88:4.3894986 266:3.1657232 575:4.6126422 678:4.6126422 1355:4.9003243 1652:5.3057894 
0.013799352384924503 22:0.5 23:0.2631579 24:0.1621944 229:9.4971697 312:2.7800607 346:4.2071771 347:4.3894986 348:4.6126422 349:4.6126422 
0.004542671222872669 3:2.6667321 13:4.6126422 22:0.5 23:0.1052632 24:0.1312092 218:3.5140299 219:3.919495 446:4.2071771 
0.00775182129560671 3:2.6667321 22:0.5 23:0.1052632 24:0.1053818 218:3.5140299 219:3.919495 1411:4.9003243 1653:5.3057894 
0.004459971561611349 22:0.5 23:0.2105263 24:0.0608226 276:4.3894986 286:4.9003243 287:4.9003243 288:4.9003243 519:4.3894986 1396:4.3894986 1654:5.3057894 
0.0062398563933811916 9:2.2147469 22:0.5 23:0.1052632 24:0.0677167 1567:4.3894986 1655:5.3057894 1656:5.3057894 1657:5.3057894 
0.004594941708756882 22:0.5 23:0.2105263 24:0.088971 41:1.178655 90:3.6963515 943:4.9003243 1208:4.9003243 1396:4.3894986 1658:5.3057894 1659:4.9003243 
0.0074150165137061245 22:0.5 23:0.3157895 24:0.1055635 91:2.1071163 182:4.0530264 293:4.6126422 514:4.6126422 518:4.9003243 758:4.9003243 792:4.2071771 1449:4.6126422 1464:4.9003243 
0.012636050066749414 22:0.5 23:0.1052632 24:0.0785712 91:2.1071163 124:4.9003243 1038:4.3894986 1651:4.9003243 1660:5.3057894 
0.004939201930428318 9:2.2147469 22:0.5 23:0.2105263 24:0.0941502 41:1.178655 1449:4.6126422 1612:4.9003243 1661:5.3057894 1662:5.3057894 1663:5.3057894 
0.006302472741793237 22:0.5 23:0.2105263 24:0.0694399 158:8.1060528 159:4.6126422 577:4.0530264 1409:4.9003243 1664:5.3057894 1665:5.3057894 
0.0067106344108868185 22:0.5 23:0.3684211 24:0.0757715 41:1.178655 772:3.919495 1085:4.2071771 1581:4.9003243 1666:5.3057894 1667:5.3057894 1668:5.3057894 1669:5.3057894 1670:5.3057894 1671:5.3057894 
0.0026224808684439716 3:2.6667321 22:0.5 23:0.3684211 24:0.1149503 29:4.6126422 30:4.6126422 41:1.178655 46:2.74084 339:4.9003243 1672:5.3057894 1673:5.3057894 1674:5.3057894 1675:5.3057894 
0.007001175148726248 22:0.5 23:0.2631579 24:0.1141446 41:2.35731 102:2.5332007 1302:4.9003243 1659:4.9003243 1676:5.3057894 1677:5.3057894 1678:5.3057894 
0.010152078273142321 22:0.5 23:0.2631579 24:0.0727316 213:4.2071771 218:3.5140299 362:4.3894986 690:4.0530264 1679:5.3057894 1680:5.3057894 1681:5.3057894 1682:5.3057894 
0.005896411074542698 22:0.5 23:0.1578947 24:0.078309 276:4.3894986 277:4.3894986 278:4.6126422 421:3.919495 524:4.0530264 1683:5.3057894 
0.003863214132343803 22:0.5 23:0.1578947 24:0.038818 34:4.6126422 1567:4.3894986 1685:5.3057894 1686:5.3057894 1687:5.3057894 1688:5.3057894 
0.02605146855652174 3:2.6667321 22:0.5 24:0.1324431 91:2.1071163 1689:5.3057894 
0.0054106879093329 22:0.5 23:0.2105263 24:0.076742 31:4.3894986 41:1.178655 446:4.2071771 1227:4.6126422 1690:5.3057894 1691:5.3057894 1692:5.3057894 
0.004089087816790136 22:0.5 23:0.3157895 24:0.1449314 36:2.7800607 145:2.9078941 146:2.9078941 266:3.1657232 489:4.9003243 1301:4.3894986 1619:4.9003243 1693:5.3057894 1694:5.3057894 
0.0046335748867775755 22:0.5 23:0.2105263 24:0.065822 31:4.3894986 41:1.178655 894:4.9003243 1538:4.9003243 1695:5.3057894 1696:5.3057894 1697:5.3057894 
0.012826243982301755 22:0.5 23:0.2631579 24:0.0845695 312:2.7800607 437:3.1085648 999:4.3894986 1424:4.9003243 1698:5.3057894 1699:5.3057894 1700:5.3057894 1701:5.3057894 
0.006798011172387554 9:2.2147469 22:0.5 23:0.2631579 24:0.1225425 73:3.6963515 97:2.2612669 110:4.0530264 1390:4.9003243 1702:5.3057894 1703:5.3057894 1704:5.3057894 
0.009183297459165065 22:0.5 23:0.2631579 24:0.0889572 36:2.7800607 163:4.3894986 234:4.2071771 840:4.6126422 1380:4.3894986 1422:4.9003243 1705:5.3057894 1706:5.3057894 
0.009918090511245103 22:0.5 23:0.2105263 24:0.077241 328:3.4339872 419:3.919495 842:3.919495 1272:4.9003243 1707:5.3057894 1708:5.3057894 1709:5.3057894 
0.001648170865743272 1:4.6126422 22:0.5 23:0.3157895 24:0.0760967 75:4.2071771 219:3.919495 508:4.2071771 1248:4.9003243 1456:4.9003243 1710:5.3057894 1711:4.6126422 1712:5.3057894 
0.0033256265488345793 22:0.5 23:0.3157895 24:0.0915755 54:1.7362567 309:3.919495 588:4.3894986 1317:4.6126422 1380:4.3894986 1716:5.3057894 1717:5.3057894 1718:5.3057894 1719:5.3057894 
0.004981529214878068 22:0.5 23:0.2631579 24:0.1287003 41:1.178655 54:1.7362567 56:4.6126422 102:2.5332007 1088:4.6126422 1720:5.3057894 1721:5.3057894 1722:5.3057894 
0.007973249101979949 9:2.2147469 22:0.5 23:0.2631579 24:0.13472 41:1.178655 90:3.6963515 370:4.6126422 700:4.2071771 1396:4.3894986 1593:4.9003243 1723:5.3057894 
0.0037668582486622727 22:0.5 23:0.4736842 24:0.0475434 38:4.9003243 625:4.3894986 1427:4.9003243 1513:4.9003243 1724:5.3057894 1725:5.3057894 1726:5.3057894 1727:5.3057894 1728:5.3057894 1729:5.3057894 1730:5.3057894 1731:5.3057894 
0.006386162271516023 1:4.6126422 22:0.5 23:0.1052632 24:0.0598409 219:3.919495 1007:4.6126422 1711:4.6126422 1736:5.3057894 
0.005557543129534606 3:2.6667321 22:0.5 23:0.5263158 24:0.1478188 41:1.178655 54:1.7362567 97:2.2612669 157:3.801712 497:4.9003243 1289:4.9003243 1536:4.6126422 1737:5.3057894 1738:5.3057894 1739:5.3057894 1740:5.3057894 1741:5.3057894 
0.003133176671647883 22:0.5 23:0.3684211 24:0.0689782 34:4.6126422 74:3.919495 291:4.3894986 425:4.9003243 950:4.3894986 1165:4.9003243 1475:4.9003243 1742:5.3057894 1743:5.3057894 1744:5.3057894 
2.7717341760411174E-4 3:2.6667321 13:4.6126422 22:0.5 23:0.4210526 24:0.1562437 41:1.178655 46:2.74084 54:1.7362567 453:4.6126422 660:4.3894986 1649:4.6126422 1745:5.3057894 1746:5.3057894 1747:5.3057894 
0.007622549147192953 22:0.5 23:0.2105263 24:0.0757347 54:1.7362567 309:3.919495 1420:4.9003243 1748:5.3057894 1749:5.3057894 1750:5.3057894 1751:5.3057894 
0.020113458904987624 22:0.5 24:0.0643073 97:2.2612669 1752:5.3057894 1753:5.3057894 
0.004029126299051137 22:0.5 23:0.4210526 24:0.1096603 41:1.178655 102:2.5332007 121:4.3894986 126:4.6126422 504:4.3894986 505:4.3894986 625:4.3894986 1754:5.3057894 1755:5.3057894 1756:5.3057894 1757:5.3057894 
0.009608840202828161 22:0.5 23:0.2105263 24:0.1699837 41:1.178655 102:2.5332007 145:2.9078941 146:2.9078941 783:4.3894986 948:4.9003243 1758:5.3057894 
0.007572655843075239 22:0.5 23:0.1578947 24:0.092385 41:1.178655 102:2.5332007 1227:4.6126422 1759:5.3057894 1760:5.3057894 1761:5.3057894 
0.009249052910366082 22:0.5 23:0.2105263 24:0.085332 39:4.2071771 41:1.178655 590:3.801712 1139:4.9003243 1158:4.9003243 1762:5.3057894 1763:5.3057894 
0.009810526137025257 22:0.5 23:0.2631579 24:0.0685332 182:4.0530264 234:4.2071771 687:4.6126422 1316:4.9003243 1317:4.6126422 1447:4.6126422 1764:5.3057894 1765:5.3057894 
0.009204096830768334 22:0.5 23:0.1578947 24:0.1219335 41:1.178655 54:1.7362567 171:3.4339872 1124:4.9003243 1766:5.3057894 1767:5.3057894 
0.009845514688758399 22:0.5 23:0.4210526 24:0.1637558 36:2.7800607 41:1.178655 54:1.7362567 91:2.1071163 205:3.919495 1304:4.9003243 1305:4.9003243 1448:4.9003243 1649:4.6126422 1768:5.3057894 1769:5.3057894 
-0.0073078296060309035 22:0.5 23:0.3684211 24:0.0754721 54:1.7362567 105:4.9003243 381:4.9003243 391:4.9003243 469:4.9003243 614:4.9003243 615:5.3057894 616:4.6126422 617:5.3057894 618:5.3057894 
-0.003322224016951908 22:0.5 23:0.3684211 24:0.1009421 97:2.2612669 351:3.5140299 603:4.6126422 619:4.9003243 620:5.3057894 621:4.3894986 622:5.3057894 623:4.9003243 624:4.9003243 625:4.3894986 
-0.0023433176183927378 9:2.2147469 22:0.5 23:0.4210526 24:0.0815355 626:5.3057894 627:5.3057894 628:5.3057894 629:5.3057894 630:5.3057894 631:4.3894986 632:5.3057894 633:4.0530264 634:4.6126422 635:4.6126422 
-0.0032039549964964806 22:0.5 23:0.4736842 24:0.0632753 137:4.6126422 198:3.801712 333:4.2071771 636:5.3057894 637:5.3057894 638:5.3057894 639:4.6126422 640:5.3057894 641:5.3057894 642:5.3057894 643:5.3057894 644:5.3057894 
-0.003301467986517103 22:0.5 23:0.2105263 24:0.0688176 437:3.1085648 645:4.9003243 646:4.9003243 647:5.3057894 648:5.3057894 649:4.9003243 650:4.2071771 
-0.006776262559245918 22:0.5 23:0.2105263 24:0.0670226 312:2.7800607 522:4.6126422 523:4.6126422 651:5.3057894 652:5.3057894 653:5.3057894 654:4.9003243 
-0.006188140015028707 22:0.5 23:0.2631579 24:0.0673411 90:3.6963515 655:4.9003243 656:5.3057894 657:4.9003243 658:4.9003243 659:4.3894986 660:4.3894986 661:5.3057894 
-0.005637463052061297 22:0.5 23:0.2105263 24:0.0408131 639:4.6126422 662:5.3057894 663:4.9003243 664:4.6126422 665:5.3057894 666:5.3057894 667:5.3057894 
-0.007394301385162269 22:0.5 23:0.4210526 24:0.1235343 41:1.178655 102:2.5332007 421:3.919495 524:4.0530264 668:5.3057894 669:4.6126422 670:4.9003243 671:5.3057894 672:4.9003243 673:5.3057894 674:4.0530264 
-0.011229726436974882 22:0.5 23:0.2105263 24:0.0755596 213:4.2071771 218:3.5140299 362:4.3894986 675:4.6126422 676:5.3057894 677:5.3057894 678:4.6126422 
-0.00808760478760819 22:0.5 23:0.2631579 24:0.0881336 41:1.178655 266:3.1657232 314:4.6126422 603:4.6126422 624:4.9003243 679:5.3057894 680:5.3057894 681:5.3057894 
-0.0024747721088771183 22:0.5 23:0.3157895 24:0.0781935 79:3.6010413 634:4.6126422 635:4.6126422 682:4.2071771 683:5.3057894 684:4.6126422 685:5.3057894 686:4.9003243 687:4.6126422 
-9.54852185057769E-4 22:0.5 23:0.2631579 24:0.0751829 91:2.1071163 292:4.3894986 688:10.6115788 689:5.3057894 690:4.0530264 691:5.3057894 692:4.9003243 
-0.0036264497079555925 22:0.5 23:0.4210526 24:0.1092396 71:3.919495 80:4.9003243 141:8.7789973 157:3.801712 266:3.1657232 269:3.3598792 485:4.9003243 693:5.3057894 694:4.9003243 695:5.3057894 
-0.004403715830655726 22:0.5 23:0.5789474 24:0.1218429 36:2.7800607 54:1.7362567 421:3.919495 521:4.6126422 524:4.0530264 696:5.3057894 697:4.3894986 698:5.3057894 699:5.3057894 700:4.2071771 701:5.3057894 702:4.6126422 703:5.3057894 704:5.3057894 
-0.011016666890993787 22:0.5 23:0.0526316 24:0.0697292 91:2.1071163 705:4.6126422 706:5.3057894 707:5.3057894 
-0.0016886507071104304 22:0.5 23:0.4210526 24:0.0856507 85:3.919495 269:3.3598792 324:4.2071771 633:4.0530264 708:4.9003243 709:5.3057894 710:5.3057894 711:5.3057894 712:4.3894986 713:5.3057894 714:5.3057894 
-0.002505245007233061 22:0.5 23:0.4736842 24:0.1061122 41:1.178655 269:3.3598792 488:4.2071771 715:4.2071771 716:5.3057894 717:5.3057894 718:4.9003243 719:4.9003243 720:4.9003243 721:4.9003243 722:5.3057894 723:4.2071771 
-0.0021824026054184124 22:0.5 23:0.2105263 24:0.0463025 142:4.6126422 724:5.3057894 725:5.3057894 726:4.9003243 727:4.9003243 728:5.3057894 729:4.3894986 
-0.005359411280366467 22:0.5 23:0.2105263 24:0.0637931 79:3.6010413 266:3.1657232 730:5.3057894 731:5.3057894 732:5.3057894 733:5.3057894 734:5.3057894 
-0.013314426974916858 22:0.5 23:0.2105263 24:0.1043698 41:1.178655 308:4.9003243 351:3.5140299 607:4.6126422 735:4.3894986 736:4.2071771 737:5.3057894 
-4.8565445718670486E-4 22:0.5 23:0.4736842 24:0.1054434 91:2.1071163 229:3.1657232 241:4.9003243 243:4.6126422 738:4.6126422 739:5.3057894 740:5.3057894 741:5.3057894 742:5.3057894 743:4.9003243 744:4.6126422 745:4.6126422 
-0.004344719762101252 22:0.5 23:0.3157895 24:0.1130013 91:2.1071163 204:3.6010413 400:4.3894986 419:3.919495 609:4.6126422 746:5.3057894 747:4.6126422 748:4.9003243 749:4.9003243 
-0.002165455780481988 22:0.5 23:0.5263158 24:0.1011778 91:2.1071163 312:2.7800607 645:4.9003243 750:4.9003243 751:5.3057894 752:4.6126422 753:3.6010413 754:5.3057894 755:5.3057894 756:5.3057894 757:5.3057894 758:4.9003243 759:5.3057894 
-0.004360122243191203 22:0.5 23:0.3157895 24:0.0434568 74:3.919495 760:5.3057894 761:5.3057894 762:5.3057894 763:5.3057894 764:5.3057894 765:5.3057894 766:5.3057894 767:4.9003243 
-0.00780104646452789 22:0.5 23:0.3157895 24:0.0908613 41:1.178655 102:2.5332007 188:4.3894986 726:4.9003243 727:4.9003243 768:5.3057894 769:5.3057894 770:5.3057894 771:5.3057894 
-0.020033819182774623 22:0.5 23:0.1578947 24:0.1318136 41:1.178655 102:2.5332007 419:3.919495 772:3.919495 773:4.9003243 774:5.3057894 
-0.007686992881420318 22:0.5 23:0.1052632 24:0.0509775 266:3.1657232 775:5.3057894 776:5.3057894 777:4.9003243 778:5.3057894 
-0.006877155263408035 22:0.5 23:0.3684211 24:0.0575715 110:4.0530264 232:4.9003243 779:4.9003243 780:5.3057894 781:5.3057894 782:4.6126422 783:4.3894986 784:5.3057894 785:5.3057894 786:5.3057894 
-0.0015815358067195258 22:0.5 23:0.3684211 24:0.1291271 75:4.2071771 162:3.2263478 229:3.1657232 392:3.5140299 437:3.1085648 787:5.3057894 788:5.3057894 789:5.3057894 790:4.9003243 791:4.9003243 
-0.0034129116107457923 22:0.5 23:0.4736842 24:0.121356 54:1.7362567 89:4.2071771 91:2.1071163 138:4.2071771 404:4.2071771 779:4.9003243 792:4.2071771 793:4.9003243 794:5.3057894 795:5.3057894 796:5.3057894 797:5.3057894 
-0.008534638603473492 22:0.5 23:0.2631579 24:0.104353 41:1.178655 102:2.5332007 351:3.5140299 798:4.6126422 799:5.3057894 800:5.3057894 801:5.3057894 802:5.3057894 
-0.007249489939017449 22:0.5 23:0.2631579 24:0.0903159 41:1.178655 91:2.1071163 607:4.6126422 803:5.3057894 804:5.3057894 805:5.3057894 806:4.9003243 807:5.3057894 
-0.0025974522231298693 22:0.5 23:0.4210526 24:0.0506967 588:4.3894986 723:4.2071771 808:5.3057894 809:10.6115788 810:5.3057894 811:5.3057894 812:5.3057894 813:5.3057894 814:5.3057894 815:4.9003243 
-0.0017606550735544933 22:0.5 23:0.4736842 24:0.106338 41:1.178655 157:3.801712 305:4.9003243 552:4.2071771 577:4.0530264 816:5.3057894 817:5.3057894 818:4.9003243 819:4.3894986 820:4.6126422 821:5.3057894 822:4.3894986 
-0.003450295547394941 22:0.5 23:0.4210526 24:0.0744742 39:4.2071771 633:4.0530264 712:4.3894986 823:5.3057894 824:5.3057894 825:4.6126422 826:5.3057894 827:4.9003243 828:4.9003243 829:4.2071771 830:5.3057894 
-0.007847089568155441 11:4.6126422 22:0.5 23:0.2105263 24:0.1141075 91:2.1071163 392:3.5140299 437:3.1085648 831:5.3057894 832:5.3057894 833:4.9003243 
-0.007562926870506575 22:0.5 23:0.1052632 24:0.0288953 834:5.3057894 835:4.6126422 836:5.3057894 837:5.3057894 838:5.3057894 
-0.00353388855182907 22:0.5 23:0.2631579 24:0.0570896 487:4.6126422 839:4.9003243 840:4.6126422 841:5.3057894 842:3.919495 843:4.9003243 844:5.3057894 845:5.3057894 
-0.007191694125172577 22:0.5 23:0.3157895 24:0.1189135 41:1.178655 312:2.7800607 351:3.5140299 378:4.9003243 533:4.3894986 846:5.3057894 847:5.3057894 848:4.6126422 849:4.6126422 
-0.005666855855646453 22:0.5 23:0.2631579 24:0.0386465 142:4.6126422 678:4.6126422 850:5.3057894 851:5.3057894 852:5.3057894 853:5.3057894 854:5.3057894 855:5.3057894 
-0.00523065470604949 22:0.5 23:0.3684211 24:0.1018401 110:4.0530264 229:3.1657232 437:3.1085648 519:4.3894986 856:4.6126422 857:5.3057894 858:5.3057894 859:4.9003243 860:5.3057894 861:5.3057894 
-0.00957063830405399 22:0.5 23:0.4736842 24:0.1422728 31:4.3894986 41:1.178655 73:3.6963515 84:4.3894986 102:2.5332007 266:3.1657232 376:4.9003243 753:3.6010413 862:5.3057894 863:5.3057894 864:5.3057894 865:5.3057894 
-0.0015452979120033545 22:0.5 23:0.3684211 24:0.0761977 351:3.5140299 772:3.919495 818:4.9003243 849:4.6126422 866:4.9003243 867:4.9003243 868:4.9003243 869:4.9003243 870:5.3057894 871:5.3057894 
-0.005589597885214245 22:0.5 23:0.2105263 24:0.063994 41:1.178655 700:4.2071771 872:4.9003243 873:5.3057894 874:5.3057894 875:5.3057894 876:5.3057894 
-0.0024065766177772327 9:2.2147469 22:0.5 23:0.2631579 24:0.1264315 312:2.7800607 437:3.1085648 438:4.2071771 623:4.9003243 877:5.3057894 878:4.9003243 879:5.3057894 
-0.013551266595484031 22:0.5 23:0.0526316 24:0.0579856 41:1.178655 749:4.9003243 880:5.3057894 881:5.3057894 
-0.0025938930469886576 22:0.5 23:0.2631579 24:0.0699827 256:3.801712 491:4.2071771 616:4.6126422 659:4.3894986 675:4.6126422 882:5.3057894 883:5.3057894 884:5.3057894 
-0.005078742904624254 22:0.5 23:0.3684211 24:0.0931048 54:1.7362567 75:4.2071771 85:3.919495 415:4.9003243 633:4.0530264 748:4.9003243 885:5.3057894 886:5.3057894 887:5.3057894 888:5.3057894 
-0.0028501498857005773 22:0.5 23:0.3157895 24:0.0521936 160:4.9003243 718:4.9003243 750:4.9003243 772:3.919495 889:5.3057894 890:5.3057894 891:4.9003243 892:5.3057894 893:5.3057894 
-0.006991123211641793 22:0.5 23:0.2631579 24:0.1039996 54:1.7362567 156:4.9003243 266:3.1657232 430:4.9003243 700:4.2071771 894:4.9003243 895:5.3057894 896:4.9003243 
-0.0028521507464871866 22:0.5 23:0.4210526 24:0.1338504 41:1.178655 54:1.7362567 269:3.3598792 312:2.7800607 715:4.2071771 897:5.3057894 898:5.3057894 899:5.3057894 900:4.9003243 901:5.3057894 902:5.3057894 
-0.005228385992436653 22:0.5 23:0.1578947 24:0.0311977 903:5.3057894 904:5.3057894 905:5.3057894 906:4.9003243 907:5.3057894 908:4.9003243 
-0.0019025727490988476 22:0.5 23:0.2631579 24:0.0978328 91:2.1071163 198:3.801712 631:4.3894986 721:4.9003243 909:5.3057894 910:5.3057894 911:4.3894986 912:4.6126422 
-0.0038774386144161373 22:0.5 23:0.2105263 24:0.0295966 913:5.3057894 914:5.3057894 915:4.9003243 916:5.3057894 917:5.3057894 918:5.3057894 919:5.3057894 
-0.005184949145145924 22:0.5 23:0.3157895 24:0.1108943 41:1.178655 91:2.1071163 312:2.7800607 920:5.3057894 921:5.3057894 922:5.3057894 923:4.6126422 924:5.3057894 925:5.3057894 
-0.0021715105844552413 22:0.5 23:0.6315789 24:0.149401 41:1.178655 54:1.7362567 91:2.1071163 157:3.801712 243:4.6126422 552:4.2071771 577:4.0530264 650:4.2071771 767:4.9003243 822:4.3894986 926:5.3057894 927:5.3057894 928:5.3057894 929:5.3057894 930:5.3057894 
-0.008403572193997491 22:0.5 23:0.2631579 24:0.0987653 41:1.178655 46:2.74084 258:4.6126422 911:4.3894986 912:4.6126422 931:5.3057894 932:5.3057894 933:5.3057894 
-0.004307005292870819 22:0.5 23:0.6315789 24:0.1242558 90:3.6963515 134:3.6963515 218:3.5140299 229:3.1657232 251:4.2071771 362:4.3894986 479:4.6126422 690:4.0530264 934:5.3057894 935:4.6126422 936:5.3057894 937:5.3057894 938:5.3057894 939:5.3057894 940:5.3057894 
-0.0030672058635484102 22:0.5 23:0.5789474 24:0.079783 37:4.9003243 41:1.178655 140:4.6126422 272:4.6126422 670:4.9003243 819:4.3894986 941:4.9003243 942:5.3057894 943:4.9003243 944:5.3057894 945:5.3057894 946:5.3057894 947:5.3057894 948:4.9003243 
-0.0035317331513584757 22:0.5 23:0.4736842 24:0.1597721 41:1.178655 157:3.801712 289:4.6126422 351:3.5140299 421:3.919495 524:4.0530264 552:4.2071771 577:4.0530264 819:4.3894986 822:4.3894986 949:4.6126422 950:4.3894986 
-0.0046262294159998656 22:0.5 23:0.2105263 24:0.0658386 238:4.9003243 315:4.6126422 437:3.1085648 819:4.3894986 951:5.3057894 952:5.3057894 953:5.3057894 
-0.003002867441768179 22:0.5 23:0.3157895 24:0.0888422 111:4.9003243 198:3.801712 437:3.1085648 438:4.2071771 633:4.0530264 954:5.3057894 955:5.3057894 956:4.9003243 957:5.3057894 
-0.001190925249482697 22:0.5 23:0.3157895 24:0.0613447 269:3.3598792 631:4.3894986 639:4.6126422 958:5.3057894 959:5.3057894 960:5.3057894 961:4.9003243 962:5.3057894 963:5.3057894 
-0.004676507027925186 22:0.5 23:0.3157895 24:0.0376029 257:4.6126422 906:4.9003243 964:5.3057894 965:5.3057894 966:5.3057894 967:5.3057894 968:5.3057894 969:5.3057894 970:5.3057894 
-0.001993248043680365 22:0.5 23:0.4736842 24:0.0647634 353:4.6126422 437:3.1085648 736:4.2071771 971:5.3057894 972:5.3057894 973:5.3057894 974:5.3057894 975:5.3057894 976:5.3057894 977:5.3057894 978:5.3057894 979:4.9003243 
-0.0020582184221694237 22:0.5 23:0.3684211 24:0.1134478 54:1.7362567 97:2.2612669 312:2.7800607 980:5.3057894 981:5.3057894 982:5.3057894 983:5.3057894 984:4.3894986 985:5.3057894 986:5.3057894 
-0.0030763268582873495 22:0.5 23:0.4210526 24:0.0930495 54:1.7362567 312:2.7800607 500:4.6126422 987:5.3057894 988:4.6126422 989:5.3057894 990:5.3057894 991:5.3057894 992:4.9003243 993:4.9003243 994:5.3057894 
-0.004864302921319801 22:0.5 23:0.2105263 24:0.0403685 908:4.9003243 995:5.3057894 996:5.3057894 997:5.3057894 998:5.3057894 999:4.3894986 1000:4.9003243 
-0.006229713825599605 22:0.5 23:0.4736842 24:0.0959273 118:3.1657232 171:3.4339872 269:3.3598792 380:4.3894986 553:4.6126422 586:4.6126422 1001:5.3057894 1002:5.3057894 1003:5.3057894 1004:5.3057894 1005:5.3057894 1006:5.3057894 
-0.0026477052853540457 22:0.5 23:0.3684211 24:0.098381 90:3.6963515 312:2.7800607 333:4.2071771 657:4.9003243 687:4.6126422 1007:4.6126422 1008:4.9003243 1009:5.3057894 1010:4.9003243 1011:4.9003243 
-0.0042865235906150816 22:0.5 23:0.3157895 24:0.1190508 41:1.178655 54:1.7362567 137:4.6126422 682:4.2071771 911:4.3894986 1012:4.6126422 1013:5.3057894 1014:4.9003243 1015:5.3057894 
-0.007992027535002265 22:0.5 23:0.3157895 24:0.0862917 41:1.178655 204:3.6010413 575:4.6126422 621:4.3894986 843:4.9003243 1016:5.3057894 1017:5.3057894 1018:4.9003243 1019:5.3057894 
-0.005099581006012572 22:0.5 23:0.5263158 24:0.0706505 236:4.3894986 242:4.9003243 266:3.1657232 403:4.6126422 559:4.9003243 1020:4.9003243 1021:5.3057894 1022:5.3057894 1023:5.3057894 1024:5.3057894 1025:4.9003243 1026:5.3057894 1027:5.3057894 
-0.005577584018205697 22:0.5 23:0.3157895 24:0.0702902 75:4.2071771 229:3.1657232 790:4.9003243 791:4.9003243 1028:5.3057894 1029:5.3057894 1030:5.3057894 1031:5.3057894 1032:5.3057894 
-0.0025665131314194034 22:0.5 23:0.6315789 24:0.0717201 114:4.9003243 134:3.6963515 353:4.6126422 478:4.9003243 631:4.3894986 856:4.6126422 1033:5.3057894 1034:5.3057894 1035:5.3057894 1036:5.3057894 1037:5.3057894 1038:4.3894986 1039:5.3057894 1040:5.3057894 1041:5.3057894 
-0.0040310730147407325 22:0.5 23:0.3684211 24:0.0508225 198:3.801712 828:4.9003243 1042:5.3057894 1043:5.3057894 1044:5.3057894 1045:5.3057894 1046:5.3057894 1047:5.3057894 1048:4.9003243 1049:4.9003243 
-0.0021833399823455693 22:0.5 23:0.2631579 24:0.0408641 782:4.6126422 848:4.6126422 1050:5.3057894 1051:10.6115788 1052:5.3057894 1053:5.3057894 1054:5.3057894 
-0.016263390089960948 22:0.5 23:0.0526316 24:0.071192 91:2.1071163 743:4.9003243 1055:5.3057894 1056:4.9003243 
-0.022483263662017337 22:0.5 24:0.0643329 41:1.178655 692:4.9003243 1057:5.3057894 
-0.00275970393336353 22:0.5 23:0.6842105 24:0.1217364 41:1.178655 54:1.7362567 71:3.919495 74:3.919495 217:4.3894986 314:4.6126422 792:4.2071771 950:4.3894986 1058:5.3057894 1059:5.3057894 1060:5.3057894 1061:4.6126422 1062:5.3057894 1063:5.3057894 1064:5.3057894 1065:5.3057894 
-0.004467285157147641 22:0.5 23:0.2631579 24:0.0422202 89:4.2071771 912:4.6126422 1066:5.3057894 1067:5.3057894 1068:5.3057894 1069:5.3057894 1070:5.3057894 1071:5.3057894 
-0.01134854926370219 22:0.5 23:0.0526316 24:0.0595479 73:3.6963515 697:4.3894986 896:4.9003243 1072:5.3057894 
-0.005148536068907008 22:0.5 23:0.4736842 24:0.1141976 41:1.178655 54:1.7362567 328:3.4339872 383:4.9003243 422:4.9003243 690:4.0530264 798:4.6126422 1073:5.3057894 1074:5.3057894 1075:5.3057894 1076:5.3057894 1077:5.3057894 
-0.009268110234712246 22:0.5 23:0.3157895 24:0.1205948 41:1.178655 102:2.5332007 328:3.4339872 690:4.0530264 839:4.9003243 840:4.6126422 1078:5.3057894 1079:5.3057894 1080:5.3057894 
-0.006270451785153511 22:0.5 23:0.2105263 24:0.1065107 229:3.1657232 312:2.7800607 1081:4.9003243 1082:4.9003243 1083:5.3057894 1084:5.3057894 1085:4.2071771 
-0.0029691300724513825 22:0.5 23:0.4210526 24:0.0782089 157:3.801712 552:4.2071771 577:4.0530264 663:4.9003243 822:4.3894986 1086:4.9003243 1087:5.3057894 1088:4.6126422 1089:5.3057894 1090:5.3057894 1091:5.3057894 
-0.005473131243520443 22:0.5 23:0.3684211 24:0.099378 36:2.7800607 41:1.178655 95:4.2071771 682:4.2071771 1092:5.3057894 1093:5.3057894 1094:4.9003243 1095:5.3057894 1096:4.9003243 1097:5.3057894 
-0.00609056053955238 22:0.5 23:0.4210526 24:0.0973758 229:3.1657232 392:3.5140299 555:4.2071771 744:4.6126422 745:4.6126422 1098:5.3057894 1099:5.3057894 1100:4.6126422 1101:4.9003243 1102:5.3057894 1103:5.3057894 
-0.0071603217477746155 9:2.2147469 22:0.5 23:0.3157895 24:0.1035747 310:4.9003243 312:2.7800607 590:3.801712 961:4.9003243 1011:4.9003243 1104:5.3057894 1105:5.3057894 1106:5.3057894 
-0.009475856350531192 22:0.5 23:0.2631579 24:0.0901408 229:3.1657232 312:2.7800607 322:4.9003243 609:4.6126422 1107:5.3057894 1108:5.3057894 1109:5.3057894 1110:5.3057894 
-0.0010009968579275073 22:0.5 23:0.4210526 24:0.0553645 736:4.2071771 1086:4.9003243 1100:4.6126422 1101:4.9003243 1111:4.9003243 1112:5.3057894 1113:5.3057894 1114:4.9003243 1115:5.3057894 1116:5.3057894 1117:5.3057894 
-0.009738127536197145 22:0.5 23:0.3684211 24:0.1110742 39:4.2071771 91:2.1071163 218:3.5140299 352:4.3894986 404:4.2071771 792:4.2071771 941:4.9003243 1118:5.3057894 1119:5.3057894 1120:5.3057894 
-0.00513340495644031 22:0.5 23:0.3157895 24:0.0837277 41:1.178655 521:4.6126422 650:4.2071771 738:4.6126422 1121:5.3057894 1122:4.6126422 1123:5.3057894 1124:4.9003243 1125:4.9003243 
-0.007194401021871277 22:0.5 23:0.1578947 24:0.055651 91:2.1071163 1126:5.3057894 1127:5.3057894 1128:5.3057894 1129:5.3057894 1130:5.3057894 
-0.003508010860860721 22:0.5 23:0.4736842 24:0.0782309 54:1.7362567 500:4.6126422 1122:4.6126422 1131:5.3057894 1132:5.3057894 1133:5.3057894 1134:4.9003243 1135:4.9003243 1136:5.3057894 1137:4.6126422 1138:5.3057894 1139:4.9003243 
-0.010279017491588249 22:0.5 23:0.2631579 24:0.0933085 41:1.178655 102:2.5332007 292:4.3894986 523:4.6126422 1140:5.3057894 1141:5.3057894 1142:5.3057894 1143:5.3057894 
-8.426807450096443E-4 22:0.5 23:0.4210526 24:0.0545647 674:4.0530264 869:4.9003243 1048:4.9003243 1049:4.9003243 1144:4.9003243 1145:5.3057894 1146:5.3057894 1147:5.3057894 1148:5.3057894 1149:4.9003243 1150:5.3057894 
-0.001345617495990382 22:0.5 23:0.4210526 24:0.0789821 97:2.2612669 684:4.6126422 900:4.9003243 1000:4.9003243 1134:4.9003243 1135:4.9003243 1137:4.6126422 1151:5.3057894 1152:5.3057894 1153:5.3057894 1154:4.9003243 
-0.0068237390472191085 4:4.9003243 22:0.5 23:0.2631579 24:0.1029235 41:1.178655 91:2.1071163 280:4.9003243 700:4.2071771 1155:5.3057894 1156:5.3057894 1157:5.3057894 
-0.00811082581700792 9:2.2147469 22:0.5 23:0.3684211 24:0.140945 41:1.178655 54:1.7362567 97:2.2612669 1158:4.9003243 1159:5.3057894 1160:5.3057894 1161:5.3057894 1162:5.3057894 1163:5.3057894 
-0.002282438850345036 22:0.5 23:0.3157895 24:0.0814291 266:3.1657232 654:4.9003243 712:4.3894986 825:4.6126422 950:4.3894986 1014:4.9003243 1025:4.9003243 1164:5.3057894 1165:4.9003243 
-0.0028996171817671427 22:0.5 23:0.2105263 24:0.0591313 634:4.6126422 635:4.6126422 772:3.919495 999:4.3894986 1166:5.3057894 1167:5.3057894 1168:5.3057894 
-0.0034409218466859895 22:0.5 23:0.3684211 24:0.0859251 85:3.919495 107:3.6963515 269:3.3598792 777:4.9003243 1081:4.9003243 1082:4.9003243 1169:5.3057894 1170:4.6126422 1171:5.3057894 1172:5.3057894 
-0.013240601700763473 22:0.5 23:0.0526316 24:0.0637886 41:1.178655 915:4.9003243 1173:5.3057894 1174:4.9003243 
-0.004817958680506193 22:0.5 23:0.3157895 24:0.0354795 891:4.9003243 1175:5.3057894 1176:5.3057894 1177:5.3057894 1178:5.3057894 1179:5.3057894 1180:4.9003243 1181:5.3057894 1182:5.3057894 
-0.0065949183287276865 22:0.5 23:0.2105263 24:0.0441394 318:4.6126422 538:4.6126422 1183:5.3057894 1184:5.3057894 1185:5.3057894 1186:4.9003243 1187:4.9003243 
-0.0023797255253399973 22:0.5 23:0.4210526 24:0.0952513 79:3.6010413 229:3.1657232 528:4.6126422 744:4.6126422 745:4.6126422 848:4.6126422 849:4.6126422 1188:5.3057894 1189:5.3057894 1190:5.3057894 1191:5.3057894 
-0.0023627928555638496 22:0.5 23:0.3157895 24:0.047987 674:4.0530264 833:4.9003243 868:4.9003243 1144:4.9003243 1192:5.3057894 1193:5.3057894 1194:5.3057894 1195:5.3057894 1196:5.3057894 
-0.004155605834432205 22:0.5 23:0.3157895 24:0.0525027 141:4.3894986 664:4.6126422 682:4.2071771 1197:5.3057894 1198:5.3057894 1199:5.3057894 1200:5.3057894 1201:5.3057894 1202:5.3057894 
-0.0030318437972334227 22:0.5 23:0.3157895 24:0.0620795 204:3.6010413 633:4.0530264 1012:4.6126422 1203:5.3057894 1204:5.3057894 1205:5.3057894 1206:5.3057894 1207:5.3057894 1208:4.9003243 
-0.0042508699785204435 22:0.5 23:0.3684211 24:0.0473208 63:4.6126422 911:4.3894986 1007:4.6126422 1209:5.3057894 1210:5.3057894 1211:5.3057894 1212:5.3057894 1213:5.3057894 1214:5.3057894 1215:5.3057894 
-0.007496035049648458 22:0.5 23:0.2105263 24:0.0429289 88:4.3894986 669:4.6126422 1216:5.3057894 1217:4.9003243 1218:5.3057894 1219:5.3057894 1220:5.3057894 
-0.006374217298848339 22:0.5 23:0.2631579 24:0.0447102 215:4.9003243 457:4.9003243 601:4.6126422 1122:4.6126422 1221:5.3057894 1222:5.3057894 1223:5.3057894 1224:5.3057894 
-0.00926698970841854 9:2.2147469 22:0.5 23:0.3157895 24:0.0945397 109:4.0530264 392:3.5140299 1225:4.6126422 1226:5.3057894 1227:4.6126422 1228:5.3057894 1229:5.3057894 1230:5.3057894 
-1.0 9:2.2147469 22:0.5 23:0.5263158 24:0.1457796 145:2.9078941 146:2.9078941 589:4.3894986 590:3.801712 591:4.9003243 592:4.9003243 593:4.6126422 594:4.6126422 595:4.6126422 596:4.9003243 597:4.9003243 598:4.9003243 
-0.006664978386602523 22:0.5 23:0.3157895 24:0.1366918 41:1.178655 54:1.7362567 202:4.2071771 347:4.3894986 502:4.9003243 753:3.6010413 1232:4.3894986 1235:4.9003243 1236:5.3057894 
-0.0124266813231165 22:0.5 23:0.1052632 24:0.1006562 91:2.1071163 318:4.6126422 423:4.6126422 753:3.6010413 1237:5.3057894 
-0.002256489069883655 22:0.5 23:0.6315789 24:0.149647 46:2.74084 54:1.7362567 97:2.2612669 122:4.3894986 202:4.2071771 437:3.1085648 835:4.6126422 1246:5.3057894 1247:5.3057894 1248:4.9003243 1249:5.3057894 1250:5.3057894 1251:4.3894986 1252:4.9003243 1253:4.9003243 
-0.018125558820101594 9:2.2147469 22:0.5 23:0.2105263 24:0.1868128 97:2.2612669 103:4.3894986 145:2.9078941 146:2.9078941 1254:5.3057894 1255:4.6126422 
-0.00295934213814465 22:0.5 23:0.2631579 24:0.0405652 984:4.3894986 1256:5.3057894 1257:5.3057894 1258:5.3057894 1259:5.3057894 1260:5.3057894 1261:5.3057894 1262:4.6126422 
-0.006570633455982658 22:0.5 23:0.4736842 24:0.1398585 54:1.7362567 91:2.1071163 309:7.83899 328:3.4339872 612:4.9003243 729:4.3894986 842:3.919495 1263:5.3057894 1264:5.3057894 1265:5.3057894 1266:5.3057894 
-0.0036856685976283474 22:0.5 23:0.4736842 24:0.0968152 91:2.1071163 315:4.6126422 328:3.4339872 729:4.3894986 842:3.919495 1267:5.3057894 1268:5.3057894 1269:5.3057894 1270:5.3057894 1271:5.3057894 1272:4.9003243 1273:5.3057894 
-0.003071523255432726 9:2.2147469 22:0.5 23:0.3684211 24:0.1795069 97:2.2612669 145:2.9078941 146:2.9078941 735:4.3894986 1085:4.2071771 1231:4.9003243 1232:4.3894986 1233:4.9003243 1234:4.9003243 
-0.015028052443085494 9:2.2147469 22:0.5 23:0.1052632 24:0.1458591 97:2.2612669 312:2.7800607 1274:5.3057894 1275:5.3057894 
-0.005930780775326237 22:0.5 23:0.3157895 24:0.1424912 46:2.74084 91:2.1071163 97:2.2612669 122:4.3894986 842:3.919495 1262:4.6126422 1276:5.3057894 1277:5.3057894 1278:5.3057894 
-0.005539359583472445 22:0.5 23:0.4736842 24:0.0999422 41:1.178655 166:4.3894986 202:4.2071771 220:4.6126422 413:4.6126422 504:4.3894986 505:4.3894986 533:4.3894986 1235:4.9003243 1279:5.3057894 1280:5.3057894 1281:5.3057894 
-0.006266479878632286 22:0.5 23:0.3157895 24:0.0985658 91:2.1071163 325:4.6126422 328:3.4339872 466:4.9003243 729:4.3894986 1282:4.9003243 1283:4.9003243 1284:5.3057894 1285:5.3057894 
-0.008669222808286156 22:0.5 23:0.3684211 24:0.1317162 46:2.74084 54:1.7362567 91:2.1071163 382:4.3894986 674:4.0530264 1286:5.3057894 1287:5.3057894 1288:5.3057894 1289:4.9003243 1290:5.3057894 
-0.0025012680481813656 22:0.5 23:0.5263158 24:0.1067752 47:4.9003243 120:4.3894986 145:2.9078941 146:2.9078941 712:4.3894986 772:3.919495 866:4.9003243 867:4.9003243 935:4.6126422 1291:5.3057894 1292:5.3057894 1293:5.3057894 1294:5.3057894 
-0.016853359645117364 22:0.5 23:0.3157895 24:0.1572985 74:3.919495 97:2.2612669 109:4.0530264 145:2.9078941 146:2.9078941 230:4.6126422 446:4.2071771 1295:5.3057894 1296:4.9003243 
-0.00337495441258738 22:0.5 23:0.5789474 24:0.1747052 36:5.5601215 145:2.9078941 146:2.9078941 266:3.1657232 269:3.3598792 702:9.2252844 715:8.4143542 1020:4.9003243 1085:8.4143542 1297:5.3057894 
-0.01797074182181624 22:0.5 23:0.3157895 24:0.134732 54:1.7362567 86:4.3894986 145:2.9078941 146:2.9078941 1301:4.3894986 1302:4.9003243 1303:5.3057894 1304:4.9003243 1305:4.9003243 
-0.005823380940384608 22:0.5 23:0.3157895 24:0.0551899 342:4.0530264 390:4.9003243 659:4.3894986 1306:5.3057894 1307:4.9003243 1308:5.3057894 1309:4.9003243 1310:5.3057894 1311:5.3057894 
-0.006535073481972055 22:0.5 23:0.4736842 24:0.1183881 118:3.1657232 119:4.9003243 161:3.2263478 162:3.2263478 182:4.0530264 508:4.2071771 1316:4.9003243 1317:4.6126422 1318:4.6126422 1319:5.3057894 1320:5.3057894 1321:5.3057894 
-0.0042377843897983035 22:0.5 23:0.3157895 24:0.0611067 295:4.9003243 304:4.9003243 554:4.9003243 682:4.2071771 719:4.9003243 720:4.9003243 1094:4.9003243 1322:4.6126422 1323:5.3057894 
-0.0034827778073282262 22:0.5 23:0.3157895 24:0.0603609 128:4.2071771 134:3.6963515 1326:5.3057894 1327:4.9003243 1328:4.9003243 1329:5.3057894 1330:4.9003243 1331:5.3057894 1332:5.3057894 
-0.0028900195122490016 22:0.5 23:0.4736842 24:0.1686102 58:4.9003243 91:2.1071163 97:2.2612669 125:4.3894986 161:3.2263478 162:3.2263478 328:3.4339872 508:4.2071771 829:4.2071771 1333:5.3057894 1334:5.3057894 1335:5.3057894 
-0.0017431973581772079 22:0.5 23:0.5263158 24:0.1283515 97:2.2612669 161:3.2263478 162:3.2263478 231:4.3894986 293:4.6126422 419:3.919495 614:4.9003243 1170:4.6126422 1217:4.9003243 1336:5.3057894 1337:4.9003243 1338:5.3057894 1339:4.9003243 
-5.243336375066526E-4 22:0.5 23:0.6842105 24:0.0963483 74:3.919495 97:2.2612669 167:4.0530264 186:4.9003243 337:4.9003243 616:4.6126422 829:4.2071771 835:4.6126422 1253:4.9003243 1342:5.3057894 1343:5.3057894 1344:5.3057894 1345:5.3057894 1346:5.3057894 1347:5.3057894 1348:5.3057894 
-3.0362667600331955E-4 22:0.5 23:0.5263158 24:0.1271504 64:4.9003243 125:4.3894986 161:3.2263478 162:3.2263478 166:4.3894986 171:3.4339872 856:4.6126422 923:4.6126422 984:4.3894986 1012:4.6126422 1349:4.9003243 1350:5.3057894 1351:4.6126422 
-0.0019222700522372152 9:2.2147469 22:0.5 23:0.5263158 24:0.1269319 54:1.7362567 161:3.2263478 162:3.2263478 747:4.6126422 1296:4.9003243 1352:5.3057894 1353:5.3057894 1354:5.3057894 1355:4.9003243 1356:5.3057894 1357:4.9003243 1358:5.3057894 
-0.004367316025520081 22:0.5 23:0.2105263 24:0.0742124 128:4.2071771 134:3.6963515 245:4.6126422 1327:4.9003243 1328:4.9003243 1359:4.3894986 1360:5.3057894 
-9.53354143490552E-4 22:0.5 23:0.3684211 24:0.0986687 134:3.6963515 161:3.2263478 162:3.2263478 403:4.6126422 747:4.6126422 1038:4.3894986 1361:5.3057894 1362:5.3057894 1363:5.3057894 1364:5.3057894 
-0.004593858210488904 22:0.5 23:0.3157895 24:0.0725588 41:1.178655 392:3.5140299 1010:4.9003243 1096:4.9003243 1365:5.3057894 1366:5.3057894 1367:5.3057894 1368:5.3057894 1369:5.3057894 
-9.861183464281618E-4 22:0.5 23:0.5789474 24:0.1514873 54:1.7362567 107:3.6963515 134:3.6963515 161:3.2263478 162:3.2263478 309:3.919495 380:4.3894986 601:4.6126422 705:4.6126422 735:4.3894986 1370:5.3057894 1371:5.3057894 1372:5.3057894 1373:5.3057894 
-0.0043758024066182675 22:0.5 23:0.4210526 24:0.1351307 54:1.7362567 125:4.3894986 130:3.4339872 161:3.2263478 162:3.2263478 231:4.3894986 992:4.9003243 1351:4.6126422 1374:5.3057894 1375:5.3057894 1376:5.3057894 
-0.009149705800938972 22:0.5 23:0.1052632 24:0.1287842 91:2.1071163 161:3.2263478 277:4.3894986 697:4.3894986 949:4.6126422 
-0.002734038174310156 22:0.5 23:0.3684211 24:0.1195066 161:3.2263478 162:3.2263478 256:3.801712 334:4.6126422 491:4.2071771 753:3.6010413 1359:4.3894986 1377:5.3057894 1378:5.3057894 1379:5.3057894 
-0.0026020060590370496 22:0.5 23:0.3684211 24:0.1062832 161:3.2263478 162:3.2263478 333:4.2071771 625:4.3894986 842:3.919495 1125:4.9003243 1380:4.3894986 1381:5.3057894 1382:5.3057894 1383:5.3057894 
-0.003394127696207961 22:0.5 23:0.1578947 24:0.0651443 266:3.1657232 829:4.2071771 1384:5.3057894 1385:5.3057894 1386:5.3057894 1387:4.6126422 
-0.005312991360480358 22:0.5 23:0.1578947 24:0.0636272 555:4.2071771 659:4.3894986 675:4.6126422 690:4.0530264 1388:5.3057894 1389:5.3057894 
-0.004012187657748436 22:0.5 23:0.2631579 24:0.060518 269:3.3598792 694:4.9003243 956:4.9003243 1322:4.6126422 1390:4.9003243 1391:5.3057894 1392:5.3057894 1393:5.3057894 
-0.010364501712110145 22:0.5 23:0.2631579 24:0.0767649 112:4.2071771 118:3.1657232 1038:4.3894986 1394:5.3057894 1395:5.3057894 1396:4.3894986 1397:5.3057894 1398:4.9003243 
-0.010473258141364567 3:2.6667321 22:0.5 23:0.3684211 24:0.1419424 54:1.7362567 167:4.0530264 214:4.2071771 324:4.2071771 723:4.2071771 988:4.6126422 1298:4.9003243 1299:4.9003243 1300:4.9003243 
-0.0025239498801837624 22:0.5 23:0.5789474 24:0.1197943 36:2.7800607 76:4.3894986 79:3.6010413 161:3.2263478 162:3.2263478 249:4.2071771 377:4.9003243 949:4.6126422 1399:5.3057894 1400:5.3057894 1401:5.3057894 1402:5.3057894 1403:5.3057894 1404:5.3057894 
-0.006538447736044729 22:0.5 23:0.3157895 24:0.088144 79:3.6010413 229:3.1657232 519:4.3894986 1111:4.9003243 1405:5.3057894 1406:5.3057894 1407:4.9003243 1408:5.3057894 1409:4.9003243 
-0.007606505614168393 3:2.6667321 22:0.5 23:0.2631579 24:0.0943798 103:8.7789973 167:4.0530264 218:3.5140299 1410:10.6115788 1411:4.9003243 
-0.011920865987986338 3:2.6667321 22:0.5 23:0.3684211 24:0.1298105 36:2.7800607 97:2.2612669 163:4.3894986 205:3.919495 316:4.9003243 1412:5.3057894 1413:5.3057894 1414:5.3057894 1415:5.3057894 
-0.007577174572842142 22:0.5 23:0.2105263 24:0.0735871 118:3.1657232 130:3.4339872 793:4.9003243 1114:4.9003243 1416:5.3057894 1417:5.3057894 1418:5.3057894 
-0.010791540947409837 22:0.5 23:0.2631579 24:0.0795439 41:1.178655 272:4.6126422 346:4.2071771 527:4.9003243 738:4.6126422 1419:5.3057894 1420:4.9003243 1421:5.3057894 
-0.011660464160525881 22:0.5 23:0.3684211 24:0.1405456 40:4.6126422 118:3.1657232 134:3.6963515 145:2.9078941 146:2.9078941 234:4.2071771 393:4.9003243 878:4.9003243 1422:4.9003243 1423:4.9003243 
-0.008376176264780311 22:0.5 23:0.2105263 24:0.0614379 209:4.9003243 437:3.1085648 1008:4.9003243 1424:4.9003243 1425:5.3057894 1426:5.3057894 1427:4.9003243 
-0.01056809048740011 22:0.5 23:0.1052632 24:0.05056 41:1.178655 1428:5.3057894 1429:5.3057894 1430:5.3057894 1431:5.3057894 
-0.003792789309784359 3:2.6667321 22:0.5 23:0.5789474 24:0.1030501 41:1.178655 89:4.2071771 325:4.6126422 370:4.6126422 621:4.3894986 798:4.6126422 1432:5.3057894 1433:5.3057894 1434:4.9003243 1435:5.3057894 1436:5.3057894 1437:5.3057894 1438:5.3057894 
-0.005842924874825072 22:0.5 23:0.3684211 24:0.1051328 41:1.178655 54:1.7362567 163:4.3894986 410:4.2071771 619:4.9003243 872:4.9003243 1283:4.9003243 1439:5.3057894 1440:5.3057894 1441:5.3057894 
-0.0034897873522221463 22:0.5 23:0.2631579 24:0.0708354 41:1.178655 588:4.3894986 815:4.9003243 1318:4.6126422 1423:4.9003243 1442:5.3057894 1443:5.3057894 1444:5.3057894 
-0.011640509287217814 22:0.5 23:0.2631579 24:0.0777401 182:4.0530264 204:3.6010413 999:4.3894986 1445:5.3057894 1446:5.3057894 1447:4.6126422 1448:4.9003243 1449:4.6126422 
-0.006720648260139626 3:2.6667321 22:0.5 23:0.3684211 24:0.1472309 41:1.178655 102:2.5332007 504:4.3894986 505:4.3894986 705:4.6126422 1232:4.3894986 1255:4.6126422 1340:4.9003243 1450:5.3057894 
-0.008966065771382276 22:0.5 23:0.2105263 24:0.1030374 46:2.74084 97:2.2612669 333:4.2071771 522:4.6126422 1451:5.3057894 1452:5.3057894 1453:5.3057894 
-0.002366398711600818 22:0.5 23:0.2631579 24:0.0991198 41:1.178655 324:4.2071771 753:3.6010413 820:4.6126422 1351:4.6126422 1407:4.9003243 1454:4.9003243 1455:5.3057894 
-0.009222250186151965 22:0.5 23:0.1578947 24:0.1206812 118:3.1657232 234:4.2071771 437:3.1085648 438:4.2071771 1318:4.6126422 1447:4.6126422 
-0.005391396523539047 9:2.2147469 22:0.5 23:0.5263158 24:0.1403143 145:2.9078941 146:2.9078941 589:4.3894986 590:3.801712 1238:4.9003243 1239:4.6126422 1240:4.9003243 1241:4.9003243 1242:4.9003243 1243:4.9003243 1244:4.9003243 1245:4.9003243 
-0.010793440051952654 9:2.2147469 22:0.5 23:0.1578947 24:0.1471067 97:2.2612669 392:3.5140299 594:4.6126422 820:4.6126422 1457:4.9003243 
-0.00604731132486502 22:0.5 23:0.2105263 24:0.0693725 54:1.7362567 493:4.9003243 782:4.6126422 1458:5.3057894 1459:5.3057894 1460:4.9003243 1461:5.3057894 
-0.004333637582189783 9:2.2147469 22:0.5 23:0.4210526 24:0.1917419 91:2.1071163 97:2.2612669 236:4.3894986 269:3.3598792 404:4.2071771 437:3.1085648 715:4.2071771 1462:5.3057894 1463:5.3057894 1464:4.9003243 
-0.0027430905504587325 9:2.2147469 22:0.5 23:0.3684211 24:0.162247 71:3.919495 97:2.2612669 171:3.4339872 437:3.1085648 590:3.801712 1307:4.9003243 1457:4.9003243 1465:5.3057894 1466:5.3057894 
-0.006150233193295841 9:2.2147469 22:0.5 23:0.4210526 24:0.1409941 54:1.7362567 129:4.9003243 131:4.6126422 312:2.7800607 674:4.0530264 923:4.6126422 1239:4.6126422 1467:4.9003243 1468:5.3057894 1469:5.3057894 
-0.014102572817389367 22:0.5 23:0.2105263 24:0.1067608 29:4.6126422 30:4.6126422 41:1.178655 102:2.5332007 984:4.3894986 1470:5.3057894 1471:5.3057894 
-0.006704866638580025 9:2.2147469 22:0.5 23:0.4736842 24:0.1372259 54:1.7362567 97:2.2612669 139:4.3894986 151:4.9003243 204:3.6010413 515:4.9003243 1472:5.3057894 1473:5.3057894 1474:5.3057894 1475:4.9003243 1476:5.3057894 
-0.0049722245885578786 22:0.5 23:0.2631579 24:0.094968 36:2.7800607 95:4.2071771 266:3.1657232 792:4.2071771 935:4.6126422 1477:10.6115788 1478:5.3057894 
-0.003671262908575135 22:0.5 23:0.4210526 24:0.0913397 54:1.7362567 112:4.2071771 159:4.6126422 269:3.3598792 859:4.9003243 1398:4.9003243 1479:5.3057894 1480:5.3057894 1481:5.3057894 1482:5.3057894 1483:5.3057894 
-0.012942210032536525 22:0.5 23:0.1052632 24:0.0644867 79:3.6010413 171:3.4339872 1484:5.3057894 1485:5.3057894 1486:5.3057894 
-0.006647714367127012 22:0.5 23:0.3157895 24:0.0798886 73:3.6963515 91:2.1071163 289:4.6126422 443:4.9003243 1487:5.3057894 1488:5.3057894 1489:5.3057894 1490:5.3057894 1491:5.3057894 
-0.009808016460892223 22:0.5 23:0.2105263 24:0.078416 46:2.74084 130:3.4339872 1149:4.9003243 1492:5.3057894 1493:4.9003243 1494:5.3057894 1495:5.3057894 
-7.128651018904736E-4 22:0.5 23:0.2631579 24:0.1409885 54:1.7362567 97:2.2612669 437:3.1085648 772:3.919495 1225:4.6126422 1496:5.3057894 1497:4.9003243 1498:5.3057894 
-0.004428536883307574 22:0.5 23:0.3157895 24:0.0755203 41:1.178655 43:4.9003243 424:4.9003243 593:4.6126422 660:4.3894986 1387:4.6126422 1499:5.3057894 1500:5.3057894 1501:5.3057894 
-0.004405853322753583 22:0.5 23:0.4736842 24:0.0832108 46:2.74084 91:2.1071163 1061:4.6126422 1357:4.9003243 1502:5.3057894 1503:5.3057894 1504:5.3057894 1505:5.3057894 1506:5.3057894 1507:5.3057894 1508:5.3057894 1509:5.3057894 
-0.0038018580635506226 22:0.5 23:0.2105263 24:0.0668779 46:2.74084 1174:4.9003243 1187:4.9003243 1359:4.3894986 1510:5.3057894 1511:5.3057894 1512:5.3057894 
-0.003805394035221319 22:0.5 23:0.4736842 24:0.095678 46:2.74084 130:3.4339872 440:4.9003243 753:3.6010413 1359:4.3894986 1493:4.9003243 1513:4.9003243 1514:5.3057894 1515:5.3057894 1516:5.3057894 1517:5.3057894 1518:5.3057894 
-0.0014385054557696953 22:0.5 23:0.5263158 24:0.0791025 197:4.9003243 312:2.7800607 649:4.9003243 650:4.2071771 669:4.6126422 684:4.6126422 752:4.6126422 1519:5.3057894 1520:5.3057894 1521:5.3057894 1522:5.3057894 1523:5.3057894 1524:5.3057894 
-0.0022409505349565194 22:0.5 23:0.3157895 24:0.1150675 54:1.7362567 97:2.2612669 213:4.2071771 842:3.919495 1282:4.9003243 1460:4.9003243 1525:5.3057894 1526:5.3057894 1527:5.3057894 
-0.013096781642153683 3:2.6667321 22:0.5 23:0.2105263 24:0.1110156 27:4.9003243 28:4.6126422 54:1.7362567 1387:4.6126422 1434:4.9003243 1528:5.3057894 
-0.00872487836851426 22:0.5 23:0.3157895 24:0.0976594 79:3.6010413 91:2.1071163 158:4.0530264 213:4.2071771 431:4.9003243 1529:5.3057894 1530:5.3057894 1531:5.3057894 1532:5.3057894 
-0.010705447404759545 3:2.6667321 22:0.5 23:0.3684211 24:0.1706918 54:1.7362567 71:3.919495 76:4.3894986 97:2.2612669 157:3.801712 1533:4.9003243 1534:4.9003243 1535:4.9003243 1536:4.6126422 
